svm_type one_class 
kernel_type rbf 
gamma 1.0 
nr_class 2 
total_sv 10 
rho 3.3960019524423544 
SV 
1 1:-1 
1 1:-0.99714286 
0.866763402267 1:-0.99428571 
0.733533030214 1:-0.0028571429 
0.139728448655 1:0 
0.35995632735 1:0.0028571429 
0.0410413094197 1:0.0057142857 
0.868977482093 1:0.99428571 
1 1:0.99714286 
1 1:1 
